4 16 1 
-0.4906679391860962 -0.16115480661392212 -0.22736388444900513 0.19993573427200317 -0.3433383107185364 -0.4856022596359253 0.1941712498664856 -0.3075944781303406 0.03130173683166504 0.061421751976013184 0.4758787751197815 0.26749974489212036 -0.3822731375694275 0.1754651665687561 0.2807062864303589 -0.1806468963623047 ,-0.36254119873046875 -0.18371468782424927 -0.4343484044075012 0.32198548316955566 0.25480979681015015 -0.35879892110824585 0.22655647993087769 0.1730806827545166 -0.10145235061645508 0.07030302286148071 -0.14000821113586426 0.3494682312011719 -0.4873512387275696 0.10636758804321289 -0.08688700199127197 0.06755608320236206 ,-0.15744131803512573 -0.0719422698020935 0.016808748245239258 -0.29696333408355713 -0.07250076532363892 0.17872077226638794 -0.36315321922302246 0.34836387634277344 -0.06423509120941162 -0.033649563789367676 -0.06511348485946655 -0.41808605194091797 -0.011692821979522705 0.1167176365852356 -0.1335631012916565 -0.24549341201782227 ,-0.36685240268707275 0.2001023292541504 -0.3426748514175415 -0.3033101558685303 0.4186496138572693 0.09889888763427734 0.005672037601470947 0.25729280710220337 0.012879669666290283 -0.4428531527519226 0.17688393592834473 0.3092392086982727 0.40882307291030884 0.21209263801574707 0.2508080005645752 -0.3280795216560364 ,
-0.07930639386177063 ,0.23025771975517273 ,-0.08077552914619446 ,0.015831440687179565 ,-0.09345486760139465 ,-0.03417003154754639 ,-0.05904090404510498 ,-0.04169771075248718 ,-0.07971182465553284 ,0.03896993398666382 ,-0.17539379000663757 ,-0.17649665474891663 ,-0.16356506943702698 ,0.1388983428478241 ,-0.11241444945335388 ,0.10746368765830994 ,
biases
0.14608144760131836 0.44577527046203613 0.14864104986190796 -0.22076457738876343 -0.27982884645462036 0.46159571409225464 0.3725889325141907 0.14298421144485474 0.17470455169677734 -0.25145673751831055 -0.27146804332733154 0.47675585746765137 0.27874159812927246 0.2509874105453491 -0.16248834133148193 0.1567748785018921 
-0.07196584343910217 
